-0.101245
0.630471
-0.215099
-0.597396
-0.201819
0.236881
-0.005758
0.322771
0.268152
-0.161389
-0.475658
0.341757
-0.160434
-0.320090
-0.210802
-0.288633
-0.568853
-0.296545
-0.208731
-0.019530
0.498834
-0.148438
0.340347
0.646396
0.167778
-0.086558
0.022757
0.454854
-0.671846
0.309668
-0.429116
-0.500811
0.724782
-0.404486
0.773008
-0.154443
-0.584779
-0.235082
0.512911
0.785098
-0.103680
-0.488096
-0.037741
-0.415161
-0.289861
0.488125
0.180582
-0.674024
0.038207
-0.367478
-0.503696
-0.717636
-0.545241
0.091873
-0.773019
-0.463577
0.416143
-0.785874
-0.113154
0.640597
0.386946
-0.740308
0.080170
0.488885
-0.048055
0.325898
-0.171172
-0.191544
-0.038163
0.251257
0.777300
0.381111
-0.050186
0.351991
-0.126710
0.027834
0.445231
-0.345133
0.684702
-0.707548
-0.503344
-0.292081
0.545235
-0.390929
0.416704
-0.681616
-0.644103
-0.021959
-0.190506
0.106610
0.708606
0.489091
0.500139
-0.176471
0.012293
0.239342
-0.229810
-0.497095
0.193441
0.599956
-0.142767
0.882211
0.168271
-0.481160
-0.068967
-0.567284
0.907195
0.091286
-0.266563
-0.040985
-0.451274
0.734678
0.335459
-0.365658
-0.022136
0.555126
-0.812093
-0.507927
0.027826
0.007999
-0.134317
-0.271118
0.051953
0.496037
-0.715900
0.568701
-0.346592
0.441682
-0.115140
0.426365
0.064951
-0.130839
0.418828
0.777909
0.274124
-0.131144
0.544939
0.552072
0.391930
-0.485997
0.240179
-0.459543
-0.154198
0.269779
0.606915
-0.509747
0.831681
0.588112
-0.163253
-0.396874
0.322403
0.250679
0.271242
-0.691353
-0.295118
-0.437412
0.779474
-0.375147
-0.078479
0.176745
0.283296
0.610820
0.412908
0.485700
0.517187
-0.639473
-0.439193
-0.253979
-0.067516
0.066200
-0.352127
-0.270946
-0.787219
0.668339
0.959416
-0.382668
-0.408653
-0.310481
0.030197
0.253911
-0.735955
-0.400052
-0.026020
0.442391
0.132233
-0.521915
0.137380
0.207452
0.327504
0.210949
-0.029965
0.737707
0.434337
-0.556551
-0.598513
0.573944
-0.784477
0.236062
-0.468111
0.035864
0.816806
-0.899078
-0.354180
-0.171438
0.396959
0.456186
-0.132209
-0.236906
0.164659
-0.109805
0.286625
0.055516
-0.655715
0.333994
0.551500
-0.337013
-0.343731
0.644436
0.469540
0.275413
-0.395307
0.282595
-0.325021
-0.012333
0.313434
0.746013
0.317924
-0.479997
0.582053
-0.193354
-0.055893
0.049129
0.202429
0.255836
0.780266
-0.590789
-0.475824
-0.326925
-0.262504
0.789808
-0.461397
-0.088692
0.733773
-0.391908
-0.530100
-0.550620
-0.055893
-0.356325
-0.622577
0.582943
0.191316
0.556637
-0.316040
-0.085353
-0.173662
-0.053690
-0.090563
0.202279
-0.554835
0.189337
0.622254
0.329073
0.117149
0.218611
-0.046122
-0.694224
0.793707
-0.538396
-0.099169
-0.100877
-0.078742
0.018298
0.015523
-0.211534
-0.203571
0.375753
0.106482
0.538309
0.662989
0.228338
-0.199628
0.148882
-0.349261
-0.009831
-0.084636
-0.253752
0.159078
-0.543393
-0.178819
0.589300
0.012589
0.334692
-0.266815
-0.236302
